const model = {"neuronCounts":[5,10,8],"classes":["car","fish","house","tree","bicycle","guitar","pencil","clock"],"network":{"levels":[{"weights":[[-0.6656621054141544,1.1607919337033483,-0.46998520231336544,-1.6194185084124044,0.3764058483044457,-1.285170576978789,0.22166563097170547,0.5615640793336495,1.0113951435468576,-0.8966471685238544],[1.2098445378214084,-1.2986330448705479,-1.0173357242277252,2.079044615977139,-2.5926048950266836,0.3403962980299728,-1.4018561740986593,-0.7423155627325172,-0.922879419400581,-0.9308431037262572],[2.0651770354595436,3.53428172014605,-1.4508921254095386,-1.3042031786198,-0.5255275346333195,-1.0854764959930698,-1.8199360960371012,-3.2421717734727324,2.3029276368056877,3.3513064401456596],[-1.7391797261733934,-1.6670823684188285,0.3846221728249578,1.2925844241869138,1.0377394412847563,1.255812538363219,1.3054013401104856,1.7225041689130665,-0.5535088047399682,-0.6933123090593502],[0.35325273804141794,0.4394274813308093,-0.14094702928823075,-0.1623331027341501,0.5012706047230117,0.8261507420377918,1.538179330987214,0.04392655577253905,-2.0296906510348713,-1.9614908116803573]],"biases":[0.8122229479355929,0.8226879351871338,-1.62612756341617,-1.1740016964661872,0.16473369529553455,-0.7577425571761774,-0.6472593088320395,-1.2325953006133692,0.38300348539971724,0.6235812128082331],"inputs":[0.7619047619047619,0.5151515151515151,0.030632974079158534,0.8445637794237906,0.5990352599675575],"outputs":[-0.25959097349918,0.001648785026389303,-0.9805766233813118,-0.3647433368672041,0.2697110739724036,-0.039288402487874186,0.6455484938383459,0.19219838560925911,-0.7327391020217819,-0.9755985422850572]},{"weights":[[-1.119901974756309,-0.3944814653714266,0.323409018238565,-0.6178497753792275,-1.1437653427272212,2.0001610820173576,1.4559155485094166,-1.9151609957470033],[2.5182317384982955,1.0643150697998311,-0.28022385577522047,-2.5838553537965105,0.23484887354205397,2.606861801729541,0.743909512572079,-3.2609559243584676],[0.8711492326047101,-1.010794828039086,-0.34694967603677174,0.3920961947367021,0.4914500576583966,0.245193520625481,-0.038195722576533184,1.1097263926155068],[-2.4374330043630112,-1.0277947353518808,0.5694409665751607,2.993667168612162,-2.1906667205208548,-0.4110447676033988,-0.6570814478192794,4.064750688941083],[1.4079564045071522,1.7029541567974635,0.2116379410153628,-2.148756589167136,2.0504876638229774,-0.20073796956216586,-3.051508386466706,0.8000203886877821],[-1.3531227677618953,-0.6544743840881596,0.6438673404956171,0.7247856666927631,0.4839259163061256,0.0833853481005854,-1.2373206458324038,2.567607956043651],[1.4750965781428562,-0.8029105968542259,0.5981486241420039,-0.35645329873710435,1.8068996080908242,-1.0691835950972672,-2.3790233283440334,2.2680076784846652],[1.5332608409880473,-0.891837307865611,0.09244216241301456,1.228702927504257,0.5168905413969971,-3.2878422464997743,-1.5882769394573928,2.3047203173858977],[1.5490731220774119,1.026947199298023,-1.0656610291780122,0.029686886202937836,-0.842098835029132,-0.35179402371124174,1.5899530450937855,-0.34918949506489283],[-0.5698638498230127,1.244894298919172,-0.9180070425584274,-1.2166640285118275,-0.6151135702034672,-1.7279446238774845,2.750578925942774,-0.09539642290874124]],"biases":[-0.5405704380023018,0.6454973777049233,0.13344409766702625,-0.8198453315603506,-0.4207841585351857,-0.758465614940751,-0.33509651545349717,-0.5072644502820409],"inputs":[-0.25959097349918,0.001648785026389303,-0.9805766233813118,-0.3647433368672041,0.2697110739724036,-0.039288402487874186,0.6455484938383459,0.19219838560925911,-0.7327391020217819,-0.9755985422850572],"outputs":[0.7113141495585654,-0.05595240932099006,0.9798458707943277,-0.9181112349493412,0.99675185768683,-0.6639741993347353,-0.9999979631519504,-0.21207400791026626]}]}};